{
  "layers": [
    {
      "weights": {
        "v": 1,
        "dim": [
          8,
          2
        ],
        "data": [
          2.252521411828365,
          2.403862425383498,
          6.031178678913263,
          -3.817144325414583,
          4.98763693986182,
          4.661283711687527,
          -4.114661695018925,
          6.114184598399095,
          5.969272668799761,
          -4.055983630317774,
          5.542563178393234,
          -3.5702054789510544,
          2.8554695537383554,
          -5.961117681233885,
          5.708441503440478,
          -3.8022956144771163
        ]
      },
      "biases": {
        "v": 1,
        "dim": [
          8
        ],
        "data": [
          0.5889597533275078,
          0.9156664897643674,
          0.44346328252377454,
          0.9602011730783356,
          1.0013907834759421,
          0.8135571112947081,
          0.4056798460636606,
          0.6861733421421796
        ]
      }
    },
    {
      "weights": {
        "v": 1,
        "dim": [
          6,
          8
        ],
        "data": [
          -1.982439181506769,
          2.673773306992298,
          -1.8874204293934833,
          -1.7501600980373306,
          3.1262410233852176,
          2.8185573421048375,
          1.7367302650363068,
          3.1557966695616755,
          0.6689842583208586,
          -0.40429306410536525,
          1.4039748429913237,
          -2.671157094368053,
          -0.817500734862962,
          -0.10588632400432418,
          1.3978681079023028,
          -0.6454342683955254,
          -1.8442564084466233,
          2.2100627998945708,
          -1.9772198300768025,
          -2.144816170571202,
          3.501479451058953,
          2.8028511602146384,
          2.5375857186563238,
          3.0922221379020405,
          0.6065690479574359,
          -0.44906049963614647,
          1.350793587409475,
          -3.192655527231885,
          -0.6020455353550555,
          -0.05289195990333939,
          1.2136707459294929,
          -0.5486320707729514,
          -1.5696544177827176,
          2.779558931259724,
          -1.992703233331467,
          -1.7545463378584327,
          3.1171257496985034,
          2.678751463498817,
          1.7536483909491605,
          3.059631810248772,
          0.3202747950755983,
          -0.8745209413075449,
          1.687715197082296,
          -2.9828118843233993,
          -0.07772854979420946,
          -0.6891039696311093,
          1.014570375041843,
          0.31767889233556346
        ]
      },
      "biases": {
        "v": 1,
        "dim": [
          6
        ],
        "data": [
          0.5296370083216129,
          0.19296211025685542,
          0.7989342571703487,
          0.32589179964367665,
          0.32091029458029624,
          0.04194263413009189
        ]
      }
    },
    {
      "weights": {
        "v": 1,
        "dim": [
          1,
          6
        ],
        "data": [
          -1.0954432963172507,
          1.3140663634801866,
          -0.9599469642560593,
          1.6484592237744904,
          -1.062308545618583,
          1.885989590218196
        ]
      },
      "biases": {
        "v": 1,
        "dim": [
          1
        ],
        "data": [
          0.559863778384137
        ]
      }
    }
  ]
}