{
  "layers": [
    {
      "weights": {
        "v": 1,
        "dim": [
          8,
          2
        ],
        "data": [
          6.435164856020877,
          -3.666286218986547,
          1.4841463562695507,
          -3.1524519696173465,
          4.8829845101115925,
          -2.948803482151169,
          7.35082034811154,
          7.0787336938491086,
          3.0560483725619276,
          -2.4846734926367504,
          6.4092950953289805,
          6.0434500828611775,
          -3.740364847927402,
          6.76322794581877,
          6.50836579554134,
          6.141563487632497
        ]
      },
      "biases": {
        "v": 1,
        "dim": [
          8
        ],
        "data": [
          0.6758971045336994,
          0.49318343318697677,
          0.6581895727532822,
          0.9564125271273896,
          0.6229514244092254,
          0.8363380614983178,
          0.31541518046735856,
          0.32249241013739577
        ]
      }
    },
    {
      "weights": {
        "v": 1,
        "dim": [
          6,
          8
        ],
        "data": [
          4.412333530409364,
          0.6613851741346518,
          2.955233341538377,
          -1.5146167663441918,
          2.1934885510549753,
          -1.1561683532406144,
          -0.7774223951384932,
          -1.692877954815616,
          -1.2314449445737041,
          -0.006610805484896415,
          -0.5345754532319649,
          0.8723606323068351,
          -0.3629826613438227,
          0.4782216314658862,
          -3.0690122431308384,
          1.814850270307574,
          4.224867246460704,
          1.002351293006224,
          3.126310744318064,
          -0.9919023736452209,
          2.149303804588976,
          -1.3419371913576719,
          -1.2129050168731377,
          -1.648969728690206,
          1.989451422777657,
          -0.4314933909858633,
          0.670636404175273,
          -1.4850016906386871,
          -0.2089533934915824,
          -1.5219361415746975,
          2.083808173589912,
          -1.3393097340463467,
          -1.5361872259492042,
          0.40443716504527816,
          -1.0235244365363203,
          0.9483155710650019,
          0.04593533571486652,
          1.0222704355970362,
          -3.096941693840243,
          1.2894382662904014,
          1.7722330014954586,
          -0.7222533467143498,
          0.7084771662524816,
          -1.3094694289112496,
          0.16680340590347834,
          -1.1961129032262976,
          2.7307448037750905,
          -2.0983414614033156
        ]
      },
      "biases": {
        "v": 1,
        "dim": [
          6
        ],
        "data": [
          0.9337246361489131,
          0.6187005608557812,
          0.9162460706906481,
          0.8860188345102639,
          0.5956317849994966,
          0.876451637089303
        ]
      }
    },
    {
      "weights": {
        "v": 1,
        "dim": [
          1,
          6
        ],
        "data": [
          -0.8260451255729923,
          1.4736137124460458,
          -0.7207908110086589,
          -0.844020493942899,
          2.134821079701828,
          -1.6826989388547882
        ]
      },
      "biases": {
        "v": 1,
        "dim": [
          1
        ],
        "data": [
          0.3934537933868817
        ]
      }
    }
  ]
}