{
  "layers": [
    {
      "weights": {
        "v": 1,
        "dim": [
          8,
          2
        ],
        "data": [
          -4.410183584789675,
          5.2525467963701615,
          5.693093926929893,
          -3.603310426727336,
          3.1870907812061917,
          -6.273399102530424,
          3.9804334601472475,
          -6.108366295586472,
          2.8822270270977772,
          -4.403799181175066,
          3.5897694698979516,
          -5.2057196325038495,
          6.14206113720283,
          -4.3656898236664565,
          6.0756673082870565,
          -4.147800537168055
        ]
      },
      "biases": {
        "v": 1,
        "dim": [
          8,
          1
        ],
        "data": [
          1.0010406810995427,
          0.4516041138576206,
          0.9523671436243062,
          0.23143723405245825,
          0.44445798071917303,
          0.17819435111826118,
          0.43181921094614456,
          0.932006957259932
        ]
      }
    },
    {
      "weights": {
        "v": 1,
        "dim": [
          6,
          8
        ],
        "data": [
          -1.6320516003786527,
          2.355535978558347,
          0.21088800897735005,
          2.441387880937184,
          -0.26351822635931654,
          1.4716029355718583,
          3.267250292272177,
          2.1347359762105635,
          0.03053781268946381,
          1.0312142121912369,
          0.47955098623311604,
          0.9105687212673201,
          0.8074975067603449,
          1.4364623954736684,
          1.366818706125003,
          1.9424304121176554,
          2.5111506980201783,
          -2.755296996618247,
          -1.3916707094746124,
          -3.03643294405086,
          -0.38010349154887185,
          -1.8813525601573102,
          -4.100440455928324,
          -2.7470253569284546,
          1.601512991271038,
          -2.451833857412774,
          -1.2050768625666484,
          -2.168680149209527,
          -0.8678986424628081,
          -2.1019984189705974,
          -3.043659396494,
          -2.7041110315896963,
          4.3893311724448125,
          0.2938541758416629,
          -0.6048526598687229,
          -1.8194328903814392,
          -0.6604475565441139,
          -1.6232351392619284,
          -0.14055204568328752,
          0.5440842950131163,
          2.6039039043481353,
          -3.4199706034831725,
          -1.5980490014173494,
          -3.118234245818496,
          -0.5500880514471026,
          -1.4811846490125276,
          -3.413619724809111,
          -2.7148492571227694
        ]
      },
      "biases": {
        "v": 1,
        "dim": [
          6,
          1
        ],
        "data": [
          0.328469504650632,
          0.02446246574453963,
          0.23521114942485602,
          0.27766850794464304,
          0.6884157276058478,
          0.05122974158647517
        ]
      }
    },
    {
      "weights": {
        "v": 1,
        "dim": [
          1,
          6
        ],
        "data": [
          0.1651168811371364,
          0.4618773495634766,
          3.1222074390209045,
          1.7194996254486554,
          -4.1685195461452365,
          2.788295171802179
        ]
      },
      "biases": {
        "v": 1,
        "dim": [
          1,
          1
        ],
        "data": [
          0.9432711458462899
        ]
      }
    }
  ]
}